digraph Tree {
node [shape=box, style="filled, rounded", color="black", fontname=helvetica] ;
edge [fontname=helvetica] ;
0 [label=<Candidate.relocate.actual_Yes &le; 0.5<br/>entropy = 1.0<br/>samples = 11700<br/>value = [5847, 5853]<br/>class = yes>, fillcolor="#ffffff"] ;
1 [label=<LOB_INFRA &le; 1.0<br/>entropy = 0.993<br/>samples = 10673<br/>value = [5847, 4826]<br/>class = no>, fillcolor="#fae9dc"] ;
0 -> 1 [labeldistance=2.5, labelangle=45, headlabel="True"] ;
2 [label=<LOB_INFRA &le; 0.002<br/>entropy = 0.957<br/>samples = 8284<br/>value = [5149, 3135]<br/>class = no>, fillcolor="#f5ceb2"] ;
1 -> 2 ;
3 [label=<Notice.period &le; 30.027<br/>entropy = 0.983<br/>samples = 7396<br/>value = [4261, 3135]<br/>class = no>, fillcolor="#f8decb"] ;
2 -> 3 ;
4 [label=<Location_Chennai &le; 0.001<br/>entropy = 0.994<br/>samples = 3917<br/>value = [1782, 2135]<br/>class = yes>, fillcolor="#deeffb"] ;
3 -> 4 ;
5 [label=<Location_Noida &le; 0.995<br/>entropy = 0.925<br/>samples = 2029<br/>value = [691, 1338]<br/>class = yes>, fillcolor="#9fd0f2"] ;
4 -> 5 ;
6 [label=<Location_Noida &le; 0.006<br/>entropy = 0.962<br/>samples = 1618<br/>value = [625, 993]<br/>class = yes>, fillcolor="#b6dbf5"] ;
5 -> 6 ;
7 [label=<DOJ.Extended_Yes &le; 0.008<br/>entropy = 0.912<br/>samples = 1476<br/>value = [483, 993]<br/>class = yes>, fillcolor="#99cdf2"] ;
6 -> 7 ;
8 [label=<Candidate.Source_Direct &le; 0.997<br/>entropy = 0.765<br/>samples = 673<br/>value = [150, 523]<br/>class = yes>, fillcolor="#72b9ec"] ;
7 -> 8 ;
9 [label=<entropy = 0.892<br/>samples = 330<br/>value = [102, 228]<br/>class = yes>, fillcolor="#92c9f1"] ;
8 -> 9 ;
10 [label=<entropy = 0.584<br/>samples = 343<br/>value = [48, 295]<br/>class = yes>, fillcolor="#59ade9"] ;
8 -> 10 ;
11 [label=<DOJ.Extended_Yes &le; 0.998<br/>entropy = 0.979<br/>samples = 803<br/>value = [333, 470]<br/>class = yes>, fillcolor="#c5e2f7"] ;
7 -> 11 ;
12 [label=<entropy = 0.0<br/>samples = 98<br/>value = [98, 0]<br/>class = no>, fillcolor="#e58139"] ;
11 -> 12 ;
13 [label=<entropy = 0.918<br/>samples = 705<br/>value = [235, 470]<br/>class = yes>, fillcolor="#9ccef2"] ;
11 -> 13 ;
14 [label=<entropy = 0.0<br/>samples = 142<br/>value = [142, 0]<br/>class = no>, fillcolor="#e58139"] ;
6 -> 14 ;
15 [label=<Rex.in.Yrs &le; 3.251<br/>entropy = 0.636<br/>samples = 411<br/>value = [66, 345]<br/>class = yes>, fillcolor="#5fb0ea"] ;
5 -> 15 ;
16 [label=<Percent.difference.CTC &le; -13.56<br/>entropy = 0.498<br/>samples = 201<br/>value = [22, 179]<br/>class = yes>, fillcolor="#51a9e8"] ;
15 -> 16 ;
17 [label=<entropy = 0.722<br/>samples = 50<br/>value = [10, 40]<br/>class = yes>, fillcolor="#6ab6ec"] ;
16 -> 17 ;
18 [label=<Duration.to.accept.offer &le; 7.5<br/>entropy = 0.4<br/>samples = 151<br/>value = [12, 139]<br/>class = yes>, fillcolor="#4aa5e7"] ;
16 -> 18 ;
19 [label=<entropy = 0.331<br/>samples = 82<br/>value = [5, 77]<br/>class = yes>, fillcolor="#46a3e7"] ;
18 -> 19 ;
20 [label=<entropy = 0.474<br/>samples = 69<br/>value = [7, 62]<br/>class = yes>, fillcolor="#4fa8e8"] ;
18 -> 20 ;
21 [label=<Offered.band_E1 &le; 0.07<br/>entropy = 0.741<br/>samples = 210<br/>value = [44, 166]<br/>class = yes>, fillcolor="#6db7ec"] ;
15 -> 21 ;
22 [label=<entropy = 0.508<br/>samples = 71<br/>value = [8, 63]<br/>class = yes>, fillcolor="#52a9e8"] ;
21 -> 22 ;
23 [label=<Candidate.Source_Direct &le; 0.989<br/>entropy = 0.825<br/>samples = 139<br/>value = [36, 103]<br/>class = yes>, fillcolor="#7ebfee"] ;
21 -> 23 ;
24 [label=<entropy = 0.964<br/>samples = 54<br/>value = [21, 33]<br/>class = yes>, fillcolor="#b7dbf6"] ;
23 -> 24 ;
25 [label=<entropy = 0.672<br/>samples = 85<br/>value = [15, 70]<br/>class = yes>, fillcolor="#63b2eb"] ;
23 -> 25 ;
26 [label=<Location_Chennai &le; 0.999<br/>entropy = 0.982<br/>samples = 1888<br/>value = [1091, 797]<br/>class = no>, fillcolor="#f8ddca"] ;
4 -> 26 ;
27 [label=<entropy = 0.0<br/>samples = 560<br/>value = [560, 0]<br/>class = no>, fillcolor="#e58139"] ;
26 -> 27 ;
28 [label=<Rex.in.Yrs &le; 2.009<br/>entropy = 0.971<br/>samples = 1328<br/>value = [531, 797]<br/>class = yes>, fillcolor="#bddef6"] ;
26 -> 28 ;
29 [label=<DOJ.Extended_Yes &le; 0.861<br/>entropy = 0.606<br/>samples = 209<br/>value = [31, 178]<br/>class = yes>, fillcolor="#5baeea"] ;
28 -> 29 ;
30 [label=<Duration.to.accept.offer &le; 6.817<br/>entropy = 0.722<br/>samples = 105<br/>value = [21, 84]<br/>class = yes>, fillcolor="#6ab6ec"] ;
29 -> 30 ;
31 [label=<entropy = 0.772<br/>samples = 53<br/>value = [12, 41]<br/>class = yes>, fillcolor="#73baed"] ;
30 -> 31 ;
32 [label=<entropy = 0.665<br/>samples = 52<br/>value = [9, 43]<br/>class = yes>, fillcolor="#62b2ea"] ;
30 -> 32 ;
33 [label=<Duration.to.accept.offer &le; 13.5<br/>entropy = 0.457<br/>samples = 104<br/>value = [10, 94]<br/>class = yes>, fillcolor="#4ea7e8"] ;
29 -> 33 ;
34 [label=<entropy = 0.584<br/>samples = 50<br/>value = [7, 43]<br/>class = yes>, fillcolor="#59ade9"] ;
33 -> 34 ;
35 [label=<entropy = 0.31<br/>samples = 54<br/>value = [3, 51]<br/>class = yes>, fillcolor="#45a3e7"] ;
33 -> 35 ;
36 [label=<Rex.in.Yrs &le; 2.999<br/>entropy = 0.992<br/>samples = 1119<br/>value = [500, 619]<br/>class = yes>, fillcolor="#d9ecfa"] ;
28 -> 36 ;
37 [label=<entropy = 0.0<br/>samples = 51<br/>value = [51, 0]<br/>class = no>, fillcolor="#e58139"] ;
36 -> 37 ;
38 [label=<Candidate.Source_Direct &le; 0.998<br/>entropy = 0.982<br/>samples = 1068<br/>value = [449, 619]<br/>class = yes>, fillcolor="#c9e4f8"] ;
36 -> 38 ;
39 [label=<entropy = 1.0<br/>samples = 604<br/>value = [300, 304]<br/>class = yes>, fillcolor="#fcfeff"] ;
38 -> 39 ;
40 [label=<entropy = 0.906<br/>samples = 464<br/>value = [149, 315]<br/>class = yes>, fillcolor="#97cbf1"] ;
38 -> 40 ;
41 [label=<DOJ.Extended_Yes &le; 0.998<br/>entropy = 0.865<br/>samples = 3479<br/>value = [2479, 1000]<br/>class = no>, fillcolor="#efb489"] ;
3 -> 41 ;
42 [label=<DOJ.Extended_Yes &le; 0.0<br/>entropy = 0.705<br/>samples = 2123<br/>value = [1716, 407]<br/>class = no>, fillcolor="#eb9f68"] ;
41 -> 42 ;
43 [label=<Duration.to.accept.offer &le; 26.99<br/>entropy = 0.898<br/>samples = 1294<br/>value = [887, 407]<br/>class = no>, fillcolor="#f1bb94"] ;
42 -> 43 ;
44 [label=<Duration.to.accept.offer &le; 0.204<br/>entropy = 0.818<br/>samples = 1004<br/>value = [749, 255]<br/>class = no>, fillcolor="#eeac7c"] ;
43 -> 44 ;
45 [label=<entropy = 0.76<br/>samples = 50<br/>value = [11, 39]<br/>class = yes>, fillcolor="#71b9ec"] ;
44 -> 45 ;
46 [label=<Rex.in.Yrs &le; 2.139<br/>entropy = 0.772<br/>samples = 954<br/>value = [738, 216]<br/>class = no>, fillcolor="#eda673"] ;
44 -> 46 ;
47 [label=<entropy = 0.881<br/>samples = 50<br/>value = [15, 35]<br/>class = yes>, fillcolor="#8ec7f0"] ;
46 -> 47 ;
48 [label=<entropy = 0.722<br/>samples = 904<br/>value = [723, 181]<br/>class = no>, fillcolor="#eca16b"] ;
46 -> 48 ;
49 [label=<Percent.difference.CTC &le; -0.107<br/>entropy = 0.998<br/>samples = 290<br/>value = [138, 152]<br/>class = yes>, fillcolor="#edf6fd"] ;
43 -> 49 ;
50 [label=<Candidate.Source_Direct &le; 0.028<br/>entropy = 0.966<br/>samples = 163<br/>value = [99, 64]<br/>class = no>, fillcolor="#f6d2b9"] ;
49 -> 50 ;
51 [label=<entropy = 1.0<br/>samples = 78<br/>value = [39, 39]<br/>class = no>, fillcolor="#ffffff"] ;
50 -> 51 ;
52 [label=<entropy = 0.874<br/>samples = 85<br/>value = [60, 25]<br/>class = no>, fillcolor="#f0b58b"] ;
50 -> 52 ;
53 [label=<Location_Chennai &le; 0.101<br/>entropy = 0.89<br/>samples = 127<br/>value = [39, 88]<br/>class = yes>, fillcolor="#91c8f1"] ;
49 -> 53 ;
54 [label=<entropy = 0.817<br/>samples = 67<br/>value = [17, 50]<br/>class = yes>, fillcolor="#7cbeee"] ;
53 -> 54 ;
55 [label=<entropy = 0.948<br/>samples = 60<br/>value = [22, 38]<br/>class = yes>, fillcolor="#acd6f4"] ;
53 -> 55 ;
56 [label=<entropy = 0.0<br/>samples = 829<br/>value = [829, 0]<br/>class = no>, fillcolor="#e58139"] ;
42 -> 56 ;
57 [label=<Location_Noida &le; 0.985<br/>entropy = 0.989<br/>samples = 1356<br/>value = [763, 593]<br/>class = no>, fillcolor="#f9e3d3"] ;
41 -> 57 ;
58 [label=<Location_Noida &le; 0.001<br/>entropy = 0.965<br/>samples = 1159<br/>value = [707, 452]<br/>class = no>, fillcolor="#f6d2b8"] ;
57 -> 58 ;
59 [label=<Candidate.Source_Employee Referral &le; 0.997<br/>entropy = 0.988<br/>samples = 1037<br/>value = [585, 452]<br/>class = no>, fillcolor="#f9e2d2"] ;
58 -> 59 ;
60 [label=<Candidate.Source_Direct &le; 0.999<br/>entropy = 0.97<br/>samples = 940<br/>value = [565, 375]<br/>class = no>, fillcolor="#f6d5bc"] ;
59 -> 60 ;
61 [label=<entropy = 0.819<br/>samples = 475<br/>value = [354, 121]<br/>class = no>, fillcolor="#eeac7d"] ;
60 -> 61 ;
62 [label=<entropy = 0.994<br/>samples = 465<br/>value = [211, 254]<br/>class = yes>, fillcolor="#ddeefb"] ;
60 -> 62 ;
63 [label=<entropy = 0.734<br/>samples = 97<br/>value = [20, 77]<br/>class = yes>, fillcolor="#6cb6ec"] ;
59 -> 63 ;
64 [label=<entropy = 0.0<br/>samples = 122<br/>value = [122, 0]<br/>class = no>, fillcolor="#e58139"] ;
58 -> 64 ;
65 [label=<Duration.to.accept.offer &le; 13.5<br/>entropy = 0.861<br/>samples = 197<br/>value = [56, 141]<br/>class = yes>, fillcolor="#88c4ef"] ;
57 -> 65 ;
66 [label=<entropy = 0.976<br/>samples = 71<br/>value = [29, 42]<br/>class = yes>, fillcolor="#c2e1f7"] ;
65 -> 66 ;
67 [label=<Duration.to.accept.offer &le; 45.0<br/>entropy = 0.75<br/>samples = 126<br/>value = [27, 99]<br/>class = yes>, fillcolor="#6fb8ec"] ;
65 -> 67 ;
68 [label=<entropy = 0.629<br/>samples = 57<br/>value = [9, 48]<br/>class = yes>, fillcolor="#5eafea"] ;
67 -> 68 ;
69 [label=<entropy = 0.828<br/>samples = 69<br/>value = [18, 51]<br/>class = yes>, fillcolor="#7fc0ee"] ;
67 -> 69 ;
70 [label=<entropy = 0.0<br/>samples = 888<br/>value = [888, 0]<br/>class = no>, fillcolor="#e58139"] ;
2 -> 70 ;
71 [label=<Candidate.Source_Employee Referral &le; 0.989<br/>entropy = 0.872<br/>samples = 2389<br/>value = [698, 1691]<br/>class = yes>, fillcolor="#8bc5f0"] ;
1 -> 71 ;
72 [label=<Candidate.Source_Employee Referral &le; 0.021<br/>entropy = 0.937<br/>samples = 1856<br/>value = [655, 1201]<br/>class = yes>, fillcolor="#a5d2f3"] ;
71 -> 72 ;
73 [label=<Rex.in.Yrs &le; 0.996<br/>entropy = 0.911<br/>samples = 1782<br/>value = [581, 1201]<br/>class = yes>, fillcolor="#99ccf2"] ;
72 -> 73 ;
74 [label=<Duration.to.accept.offer &le; 3.027<br/>entropy = 0.926<br/>samples = 255<br/>value = [168, 87]<br/>class = no>, fillcolor="#f2c2a0"] ;
73 -> 74 ;
75 [label=<entropy = 0.964<br/>samples = 134<br/>value = [82, 52]<br/>class = no>, fillcolor="#f5d1b7"] ;
74 -> 75 ;
76 [label=<entropy = 0.868<br/>samples = 121<br/>value = [86, 35]<br/>class = no>, fillcolor="#f0b48a"] ;
74 -> 76 ;
77 [label=<Location_Noida &le; 1.0<br/>entropy = 0.842<br/>samples = 1527<br/>value = [413, 1114]<br/>class = yes>, fillcolor="#82c1ef"] ;
73 -> 77 ;
78 [label=<Location_Noida &le; 0.001<br/>entropy = 0.945<br/>samples = 829<br/>value = [301, 528]<br/>class = yes>, fillcolor="#aad5f4"] ;
77 -> 78 ;
79 [label=<Candidate.Source_Direct &le; 0.968<br/>entropy = 0.832<br/>samples = 717<br/>value = [189, 528]<br/>class = yes>, fillcolor="#80c0ee"] ;
78 -> 79 ;
80 [label=<Location_Chennai &le; 0.926<br/>entropy = 0.957<br/>samples = 214<br/>value = [81, 133]<br/>class = yes>, fillcolor="#b2d9f5"] ;
79 -> 80 ;
81 [label=<entropy = 1.0<br/>samples = 98<br/>value = [48, 50]<br/>class = yes>, fillcolor="#f7fbfe"] ;
80 -> 81 ;
82 [label=<entropy = 0.861<br/>samples = 116<br/>value = [33, 83]<br/>class = yes>, fillcolor="#88c4ef"] ;
80 -> 82 ;
83 [label=<Percent.difference.CTC &le; 0.79<br/>entropy = 0.75<br/>samples = 503<br/>value = [108, 395]<br/>class = yes>, fillcolor="#6fb8ec"] ;
79 -> 83 ;
84 [label=<entropy = 0.661<br/>samples = 344<br/>value = [59, 285]<br/>class = yes>, fillcolor="#62b1ea"] ;
83 -> 84 ;
85 [label=<entropy = 0.891<br/>samples = 159<br/>value = [49, 110]<br/>class = yes>, fillcolor="#91c9f1"] ;
83 -> 85 ;
86 [label=<entropy = 0.0<br/>samples = 112<br/>value = [112, 0]<br/>class = no>, fillcolor="#e58139"] ;
78 -> 86 ;
87 [label=<Duration.to.accept.offer &le; 1.142<br/>entropy = 0.635<br/>samples = 698<br/>value = [112, 586]<br/>class = yes>, fillcolor="#5fb0ea"] ;
77 -> 87 ;
88 [label=<Rex.in.Yrs &le; 5.422<br/>entropy = 0.376<br/>samples = 261<br/>value = [19, 242]<br/>class = yes>, fillcolor="#49a5e7"] ;
87 -> 88 ;
89 [label=<Rex.in.Yrs &le; 1.5<br/>entropy = 0.266<br/>samples = 199<br/>value = [9, 190]<br/>class = yes>, fillcolor="#42a2e6"] ;
88 -> 89 ;
90 [label=<entropy = 0.106<br/>samples = 72<br/>value = [1, 71]<br/>class = yes>, fillcolor="#3c9ee5"] ;
89 -> 90 ;
91 [label=<entropy = 0.339<br/>samples = 127<br/>value = [8, 119]<br/>class = yes>, fillcolor="#46a4e7"] ;
89 -> 91 ;
92 [label=<entropy = 0.637<br/>samples = 62<br/>value = [10, 52]<br/>class = yes>, fillcolor="#5fb0ea"] ;
88 -> 92 ;
93 [label=<Notice.period &le; 37.5<br/>entropy = 0.747<br/>samples = 437<br/>value = [93, 344]<br/>class = yes>, fillcolor="#6fb7ec"] ;
87 -> 93 ;
94 [label=<Percent.difference.CTC &le; -16.335<br/>entropy = 0.658<br/>samples = 276<br/>value = [47, 229]<br/>class = yes>, fillcolor="#62b1ea"] ;
93 -> 94 ;
95 [label=<entropy = 0.941<br/>samples = 53<br/>value = [19, 34]<br/>class = yes>, fillcolor="#a8d4f4"] ;
94 -> 95 ;
96 [label=<entropy = 0.545<br/>samples = 223<br/>value = [28, 195]<br/>class = yes>, fillcolor="#55abe9"] ;
94 -> 96 ;
97 [label=<Duration.to.accept.offer &le; 20.5<br/>entropy = 0.863<br/>samples = 161<br/>value = [46, 115]<br/>class = yes>, fillcolor="#88c4ef"] ;
93 -> 97 ;
98 [label=<entropy = 0.97<br/>samples = 83<br/>value = [33, 50]<br/>class = yes>, fillcolor="#bcdef6"] ;
97 -> 98 ;
99 [label=<entropy = 0.65<br/>samples = 78<br/>value = [13, 65]<br/>class = yes>, fillcolor="#61b1ea"] ;
97 -> 99 ;
100 [label=<entropy = 0.0<br/>samples = 74<br/>value = [74, 0]<br/>class = no>, fillcolor="#e58139"] ;
72 -> 100 ;
101 [label=<Rex.in.Yrs &le; 2.5<br/>entropy = 0.405<br/>samples = 533<br/>value = [43, 490]<br/>class = yes>, fillcolor="#4aa6e7"] ;
71 -> 101 ;
102 [label=<Location_Noida &le; 0.5<br/>entropy = 0.249<br/>samples = 193<br/>value = [8, 185]<br/>class = yes>, fillcolor="#42a1e6"] ;
101 -> 102 ;
103 [label=<entropy = 0.439<br/>samples = 55<br/>value = [5, 50]<br/>class = yes>, fillcolor="#4da7e8"] ;
102 -> 103 ;
104 [label=<Duration.to.accept.offer &le; 4.5<br/>entropy = 0.151<br/>samples = 138<br/>value = [3, 135]<br/>class = yes>, fillcolor="#3d9fe6"] ;
102 -> 104 ;
105 [label=<entropy = 0.0<br/>samples = 87<br/>value = [0, 87]<br/>class = yes>, fillcolor="#399de5"] ;
104 -> 105 ;
106 [label=<entropy = 0.323<br/>samples = 51<br/>value = [3, 48]<br/>class = yes>, fillcolor="#45a3e7"] ;
104 -> 106 ;
107 [label=<Percent.difference.CTC &le; 5.44<br/>entropy = 0.478<br/>samples = 340<br/>value = [35, 305]<br/>class = yes>, fillcolor="#50a8e8"] ;
101 -> 107 ;
108 [label=<Notice.period &le; 37.5<br/>entropy = 0.532<br/>samples = 273<br/>value = [33, 240]<br/>class = yes>, fillcolor="#54aae9"] ;
107 -> 108 ;
109 [label=<Rex.in.Yrs &le; 3.981<br/>entropy = 0.473<br/>samples = 178<br/>value = [18, 160]<br/>class = yes>, fillcolor="#4fa8e8"] ;
108 -> 109 ;
110 [label=<entropy = 0.636<br/>samples = 56<br/>value = [9, 47]<br/>class = yes>, fillcolor="#5fb0ea"] ;
109 -> 110 ;
111 [label=<Duration.to.accept.offer &le; 6.5<br/>entropy = 0.38<br/>samples = 122<br/>value = [9, 113]<br/>class = yes>, fillcolor="#49a5e7"] ;
109 -> 111 ;
112 [label=<entropy = 0.255<br/>samples = 70<br/>value = [3, 67]<br/>class = yes>, fillcolor="#42a1e6"] ;
111 -> 112 ;
113 [label=<entropy = 0.516<br/>samples = 52<br/>value = [6, 46]<br/>class = yes>, fillcolor="#53aae8"] ;
111 -> 113 ;
114 [label=<entropy = 0.629<br/>samples = 95<br/>value = [15, 80]<br/>class = yes>, fillcolor="#5eafea"] ;
108 -> 114 ;
115 [label=<entropy = 0.194<br/>samples = 67<br/>value = [2, 65]<br/>class = yes>, fillcolor="#3fa0e6"] ;
107 -> 115 ;
116 [label=<entropy = 0.0<br/>samples = 1027<br/>value = [0, 1027]<br/>class = yes>, fillcolor="#399de5"] ;
0 -> 116 [labeldistance=2.5, labelangle=-45, headlabel="False"] ;
}